digraph Tree {
node [shape=box, style="filled", color="black", fontname="helvetica"] ;
edge [fontname="helvetica"] ;
0 [label="disease <= 1.5\nentropy = 5.131\nsamples = 901\nvalue = [24.0, 31.0, 24.0, 11.0, 11.0, 33.0, 33.0, 30.0, 11.0\n28.0, 36.0, 1.0, 11.0, 58.0, 2.0, 1.0, 26.0, 1.0\n1.0, 1.0, 1.0, 1.0, 2.0, 16.0, 1.0, 31.0, 2.0, 2.0\n12.0, 1.0, 2.0, 5.0, 2.0, 6.0, 11.0, 28.0, 2.0, 58.0\n6.0, 1.0, 2.0, 8.0, 17.0, 30.0, 2.0, 3.0, 57.0, 33.0\n11.0, 4.0, 28.0, 10.0, 1.0, 2.0, 2.0, 1.0, 2.0, 8.0\n2.0, 61.0, 1.0, 11.0, 2.0, 39.0]\nclass = ricinus communis", fillcolor="#fffefe"] ;
1 [label="disease <= 0.5\nentropy = 4.116\nsamples = 442\nvalue = [0.0, 0.0, 0.0, 0.0, 0.0, 0.0, 0.0, 0.0, 0.0, 28.0\n34.0, 1.0, 11.0, 0.0, 0.0, 1.0, 26.0, 0.0, 1.0, 1.0\n1.0, 0.0, 0.0, 16.0, 0.0, 31.0, 0.0, 2.0, 0.0, 1.0\n0.0, 0.0, 0.0, 0.0, 11.0, 28.0, 2.0, 58.0, 0.0, 0.0\n0.0, 8.0, 17.0, 30.0, 2.0, 3.0, 0.0, 0.0, 11.0, 4.0\n28.0, 10.0, 1.0, 0.0, 0.0, 0.0, 0.0, 0.0, 2.0, 61.0\n1.0, 11.0, 0.0, 0.0]\nclass = ricinus communis", fillcolor="#fffdfe"] ;
0 -> 1 [labeldistance=2.5, labelangle=45, headlabel="True"] ;
2 [label="age <= 40.5\nentropy = 3.376\nsamples = 217\nvalue = [0.0, 0.0, 0.0, 0.0, 0.0, 0.0, 0.0, 0.0, 0.0, 28.0\n0.0, 1.0, 11.0, 0.0, 0.0, 0.0, 26.0, 0.0, 0.0, 1.0\n1.0, 0.0, 0.0, 0.0, 0.0, 31.0, 0.0, 2.0, 0.0, 0.0\n0.0, 0.0, 0.0, 0.0, 11.0, 28.0, 0.0, 0.0, 0.0, 0.0\n0.0, 0.0, 0.0, 30.0, 2.0, 3.0, 0.0, 0.0, 11.0, 0.0\n28.0, 0.0, 0.0, 0.0, 0.0, 0.0, 0.0, 0.0, 2.0, 0.0\n1.0, 0.0, 0.0, 0.0]\nclass = sankha vati", fillcolor="#feffff"] ;
1 -> 2 ;
3 [label="age <= 18.5\nentropy = 2.926\nsamples = 135\nvalue = [0, 0, 0, 0, 0, 0, 0, 0, 0, 0, 0, 1, 11, 0\n0, 0, 0, 0, 0, 1, 1, 0, 0, 0, 0, 31, 0, 2\n0, 0, 0, 0, 0, 0, 11, 28, 0, 0, 0, 0, 0, 0\n0, 30, 2, 3, 0, 0, 11, 0, 0, 0, 0, 0, 0, 0\n0, 0, 2, 0, 1, 0, 0, 0]\nclass = sankha vati", fillcolor="#fdfffe"] ;
2 -> 3 ;
4 [label="severity <= 1.5\nentropy = 2.808\nsamples = 46\nvalue = [0, 0, 0, 0, 0, 0, 0, 0, 0, 0, 0, 1, 11, 0\n0, 0, 0, 0, 0, 1, 1, 0, 0, 0, 0, 0, 0, 2\n0, 0, 0, 0, 0, 0, 11, 0, 0, 0, 0, 0, 0, 0\n0, 0, 2, 3, 0, 0, 11, 0, 0, 0, 0, 0, 0, 0\n0, 0, 2, 0, 1, 0, 0, 0]\nclass = bilwa", fillcolor="#ffffff"] ;
3 -> 4 ;
5 [label="severity <= 0.5\nentropy = 2.237\nsamples = 30\nvalue = [0, 0, 0, 0, 0, 0, 0, 0, 0, 0, 0, 1, 11, 0\n0, 0, 0, 0, 0, 1, 1, 0, 0, 0, 0, 0, 0, 2\n0, 0, 0, 0, 0, 0, 11, 0, 0, 0, 0, 0, 0, 0\n0, 0, 2, 0, 0, 0, 0, 0, 0, 0, 0, 0, 0, 0\n0, 0, 0, 0, 1, 0, 0, 0]\nclass = bilwa", fillcolor="#ffffff"] ;
4 -> 5 ;
6 [label="age <= 10.5\nentropy = 1.089\nsamples = 14\nvalue = [0, 0, 0, 0, 0, 0, 0, 0, 0, 0, 0, 1, 0, 0\n0, 0, 0, 0, 0, 1, 0, 0, 0, 0, 0, 0, 0, 0\n0, 0, 0, 0, 0, 0, 11, 0, 0, 0, 0, 0, 0, 0\n0, 0, 0, 0, 0, 0, 0, 0, 0, 0, 0, 0, 0, 0\n0, 0, 0, 0, 1, 0, 0, 0]\nclass = tribhuvan kirti rasa", fillcolor="#679ceb"] ;
5 -> 6 ;
7 [label="entropy = 1.585\nsamples = 3\nvalue = [0, 0, 0, 0, 0, 0, 0, 0, 0, 0, 0, 1, 0, 0\n0, 0, 0, 0, 0, 1, 0, 0, 0, 0, 0, 0, 0, 0\n0, 0, 0, 0, 0, 0, 0, 0, 0, 0, 0, 0, 0, 0\n0, 0, 0, 0, 0, 0, 0, 0, 0, 0, 0, 0, 0, 0\n0, 0, 0, 0, 1, 0, 0, 0]\nclass = haritaki", fillcolor="#ffffff"] ;
6 -> 7 ;
8 [label="entropy = 0.0\nsamples = 11\nvalue = [0, 0, 0, 0, 0, 0, 0, 0, 0, 0, 0, 0, 0, 0\n0, 0, 0, 0, 0, 0, 0, 0, 0, 0, 0, 0, 0, 0\n0, 0, 0, 0, 0, 0, 11, 0, 0, 0, 0, 0, 0, 0\n0, 0, 0, 0, 0, 0, 0, 0, 0, 0, 0, 0, 0, 0\n0, 0, 0, 0, 0, 0, 0, 0]\nclass = tribhuvan kirti rasa", fillcolor="#397ee5"] ;
6 -> 8 ;
9 [label="age <= 10.5\nentropy = 1.372\nsamples = 16\nvalue = [0, 0, 0, 0, 0, 0, 0, 0, 0, 0, 0, 0, 11, 0\n0, 0, 0, 0, 0, 0, 1, 0, 0, 0, 0, 0, 0, 2\n0, 0, 0, 0, 0, 0, 0, 0, 0, 0, 0, 0, 0, 0\n0, 0, 2, 0, 0, 0, 0, 0, 0, 0, 0, 0, 0, 0\n0, 0, 0, 0, 0, 0, 0, 0]\nclass = bilwa", fillcolor="#b3ee80"] ;
5 -> 9 ;
10 [label="entropy = 1.522\nsamples = 5\nvalue = [0, 0, 0, 0, 0, 0, 0, 0, 0, 0, 0, 0, 0, 0\n0, 0, 0, 0, 0, 0, 1, 0, 0, 0, 0, 0, 0, 2\n0, 0, 0, 0, 0, 0, 0, 0, 0, 0, 0, 0, 0, 0\n0, 0, 2, 0, 0, 0, 0, 0, 0, 0, 0, 0, 0, 0\n0, 0, 0, 0, 0, 0, 0, 0]\nclass = hingvadi vati", fillcolor="#ffffff"] ;
9 -> 10 ;
11 [label="entropy = 0.0\nsamples = 11\nvalue = [0, 0, 0, 0, 0, 0, 0, 0, 0, 0, 0, 0, 11, 0\n0, 0, 0, 0, 0, 0, 0, 0, 0, 0, 0, 0, 0, 0\n0, 0, 0, 0, 0, 0, 0, 0, 0, 0, 0, 0, 0, 0\n0, 0, 0, 0, 0, 0, 0, 0, 0, 0, 0, 0, 0, 0\n0, 0, 0, 0, 0, 0, 0, 0]\nclass = bilwa", fillcolor="#89e539"] ;
9 -> 11 ;
12 [label="age <= 10.5\nentropy = 1.199\nsamples = 16\nvalue = [0, 0, 0, 0, 0, 0, 0, 0, 0, 0, 0, 0, 0, 0\n0, 0, 0, 0, 0, 0, 0, 0, 0, 0, 0, 0, 0, 0\n0, 0, 0, 0, 0, 0, 0, 0, 0, 0, 0, 0, 0, 0\n0, 0, 0, 3, 0, 0, 11, 0, 0, 0, 0, 0, 0, 0\n0, 0, 2, 0, 0, 0, 0, 0]\nclass = kamdhudha ras", fillcolor="#e685ef"] ;
4 -> 12 ;
13 [label="age <= 9.5\nentropy = 0.971\nsamples = 5\nvalue = [0, 0, 0, 0, 0, 0, 0, 0, 0, 0, 0, 0, 0, 0\n0, 0, 0, 0, 0, 0, 0, 0, 0, 0, 0, 0, 0, 0\n0, 0, 0, 0, 0, 0, 0, 0, 0, 0, 0, 0, 0, 0\n0, 0, 0, 3, 0, 0, 0, 0, 0, 0, 0, 0, 0, 0\n0, 0, 2, 0, 0, 0, 0, 0]\nclass = Vasant Kusumakar Ras", fillcolor="#e1bdf6"] ;
12 -> 13 ;
14 [label="entropy = 0.0\nsamples = 3\nvalue = [0, 0, 0, 0, 0, 0, 0, 0, 0, 0, 0, 0, 0, 0\n0, 0, 0, 0, 0, 0, 0, 0, 0, 0, 0, 0, 0, 0\n0, 0, 0, 0, 0, 0, 0, 0, 0, 0, 0, 0, 0, 0\n0, 0, 0, 3, 0, 0, 0, 0, 0, 0, 0, 0, 0, 0\n0, 0, 0, 0, 0, 0, 0, 0]\nclass = Vasant Kusumakar Ras", fillcolor="#a639e5"] ;
13 -> 14 ;
15 [label="entropy = 0.0\nsamples = 2\nvalue = [0, 0, 0, 0, 0, 0, 0, 0, 0, 0, 0, 0, 0, 0\n0, 0, 0, 0, 0, 0, 0, 0, 0, 0, 0, 0, 0, 0\n0, 0, 0, 0, 0, 0, 0, 0, 0, 0, 0, 0, 0, 0\n0, 0, 0, 0, 0, 0, 0, 0, 0, 0, 0, 0, 0, 0\n0, 0, 2, 0, 0, 0, 0, 0]\nclass = fenugreek seed", fillcolor="#e53953"] ;
13 -> 15 ;
16 [label="entropy = 0.0\nsamples = 11\nvalue = [0, 0, 0, 0, 0, 0, 0, 0, 0, 0, 0, 0, 0, 0\n0, 0, 0, 0, 0, 0, 0, 0, 0, 0, 0, 0, 0, 0\n0, 0, 0, 0, 0, 0, 0, 0, 0, 0, 0, 0, 0, 0\n0, 0, 0, 0, 0, 0, 11, 0, 0, 0, 0, 0, 0, 0\n0, 0, 0, 0, 0, 0, 0, 0]\nclass = kamdhudha ras", fillcolor="#d739e5"] ;
12 -> 16 ;
17 [label="severity <= 0.5\nentropy = 1.584\nsamples = 89\nvalue = [0, 0, 0, 0, 0, 0, 0, 0, 0, 0, 0, 0, 0, 0\n0, 0, 0, 0, 0, 0, 0, 0, 0, 0, 0, 31, 0, 0\n0, 0, 0, 0, 0, 0, 0, 28, 0, 0, 0, 0, 0, 0\n0, 30, 0, 0, 0, 0, 0, 0, 0, 0, 0, 0, 0, 0\n0, 0, 0, 0, 0, 0, 0, 0]\nclass = sankha vati", fillcolor="#fcfffe"] ;
3 -> 17 ;
18 [label="entropy = 0.0\nsamples = 31\nvalue = [0, 0, 0, 0, 0, 0, 0, 0, 0, 0, 0, 0, 0, 0\n0, 0, 0, 0, 0, 0, 0, 0, 0, 0, 0, 31, 0, 0\n0, 0, 0, 0, 0, 0, 0, 0, 0, 0, 0, 0, 0, 0\n0, 0, 0, 0, 0, 0, 0, 0, 0, 0, 0, 0, 0, 0\n0, 0, 0, 0, 0, 0, 0, 0]\nclass = sankha vati", fillcolor="#39e5ba"] ;
17 -> 18 ;
19 [label="severity <= 1.5\nentropy = 0.999\nsamples = 58\nvalue = [0.0, 0.0, 0.0, 0.0, 0.0, 0.0, 0.0, 0.0, 0.0, 0.0\n0.0, 0.0, 0.0, 0.0, 0.0, 0.0, 0.0, 0.0, 0.0, 0.0\n0.0, 0.0, 0.0, 0.0, 0.0, 0.0, 0.0, 0.0, 0.0, 0.0\n0.0, 0.0, 0.0, 0.0, 0.0, 28.0, 0.0, 0.0, 0.0, 0.0\n0.0, 0.0, 0.0, 30.0, 0.0, 0.0, 0.0, 0.0, 0.0, 0.0\n0.0, 0.0, 0.0, 0.0, 0.0, 0.0, 0.0, 0.0, 0.0, 0.0\n0.0, 0.0, 0.0, 0.0]\nclass = Mudgaparni", fillcolor="#f7f2fd"] ;
17 -> 19 ;
20 [label="entropy = 0.0\nsamples = 30\nvalue = [0, 0, 0, 0, 0, 0, 0, 0, 0, 0, 0, 0, 0, 0\n0, 0, 0, 0, 0, 0, 0, 0, 0, 0, 0, 0, 0, 0\n0, 0, 0, 0, 0, 0, 0, 0, 0, 0, 0, 0, 0, 0\n0, 30, 0, 0, 0, 0, 0, 0, 0, 0, 0, 0, 0, 0\n0, 0, 0, 0, 0, 0, 0, 0]\nclass = Mudgaparni", fillcolor="#8339e5"] ;
19 -> 20 ;
21 [label="entropy = 0.0\nsamples = 28\nvalue = [0, 0, 0, 0, 0, 0, 0, 0, 0, 0, 0, 0, 0, 0\n0, 0, 0, 0, 0, 0, 0, 0, 0, 0, 0, 0, 0, 0\n0, 0, 0, 0, 0, 0, 0, 28, 0, 0, 0, 0, 0, 0\n0, 0, 0, 0, 0, 0, 0, 0, 0, 0, 0, 0, 0, 0\n0, 0, 0, 0, 0, 0, 0, 0]\nclass = mrutyunjay rasa", fillcolor="#396fe5"] ;
19 -> 21 ;
22 [label="severity <= 1.5\nentropy = 1.584\nsamples = 82\nvalue = [0.0, 0.0, 0.0, 0.0, 0.0, 0.0, 0.0, 0.0, 0.0, 28.0\n0.0, 0.0, 0.0, 0.0, 0.0, 0.0, 26.0, 0.0, 0.0, 0.0\n0.0, 0.0, 0.0, 0.0, 0.0, 0.0, 0.0, 0.0, 0.0, 0.0\n0.0, 0.0, 0.0, 0.0, 0.0, 0.0, 0.0, 0.0, 0.0, 0.0\n0.0, 0.0, 0.0, 0.0, 0.0, 0.0, 0.0, 0.0, 0.0, 0.0\n28.0, 0.0, 0.0, 0.0, 0.0, 0.0, 0.0, 0.0, 0.0, 0.0\n0.0, 0.0, 0.0, 0.0]\nclass = fenugreek", fillcolor="#ffffff"] ;
2 -> 22 ;
23 [label="severity <= 0.5\nentropy = 0.999\nsamples = 54\nvalue = [0, 0, 0, 0, 0, 0, 0, 0, 0, 28, 0, 0, 0, 0\n0, 0, 26, 0, 0, 0, 0, 0, 0, 0, 0, 0, 0, 0\n0, 0, 0, 0, 0, 0, 0, 0, 0, 0, 0, 0, 0, 0\n0, 0, 0, 0, 0, 0, 0, 0, 0, 0, 0, 0, 0, 0\n0, 0, 0, 0, 0, 0, 0, 0]\nclass = fenugreek", fillcolor="#fafdf1"] ;
22 -> 23 ;
24 [label="entropy = 0.0\nsamples = 26\nvalue = [0, 0, 0, 0, 0, 0, 0, 0, 0, 0, 0, 0, 0, 0\n0, 0, 26, 0, 0, 0, 0, 0, 0, 0, 0, 0, 0, 0\n0, 0, 0, 0, 0, 0, 0, 0, 0, 0, 0, 0, 0, 0\n0, 0, 0, 0, 0, 0, 0, 0, 0, 0, 0, 0, 0, 0\n0, 0, 0, 0, 0, 0, 0, 0]\nclass = ajamodarka", fillcolor="#47e539"] ;
23 -> 24 ;
25 [label="entropy = 0.0\nsamples = 28\nvalue = [0, 0, 0, 0, 0, 0, 0, 0, 0, 28, 0, 0, 0, 0\n0, 0, 0, 0, 0, 0, 0, 0, 0, 0, 0, 0, 0, 0\n0, 0, 0, 0, 0, 0, 0, 0, 0, 0, 0, 0, 0, 0\n0, 0, 0, 0, 0, 0, 0, 0, 0, 0, 0, 0, 0, 0\n0, 0, 0, 0, 0, 0, 0, 0]\nclass = fenugreek", fillcolor="#bae539"] ;
23 -> 25 ;
26 [label="entropy = 0.0\nsamples = 28\nvalue = [0, 0, 0, 0, 0, 0, 0, 0, 0, 0, 0, 0, 0, 0\n0, 0, 0, 0, 0, 0, 0, 0, 0, 0, 0, 0, 0, 0\n0, 0, 0, 0, 0, 0, 0, 0, 0, 0, 0, 0, 0, 0\n0, 0, 0, 0, 0, 0, 0, 0, 28, 0, 0, 0, 0, 0\n0, 0, 0, 0, 0, 0, 0, 0]\nclass = giloy satya", fillcolor="#e539d4"] ;
22 -> 26 ;
27 [label="severity <= 1.5\nentropy = 2.866\nsamples = 225\nvalue = [0.0, 0.0, 0.0, 0.0, 0.0, 0.0, 0.0, 0.0, 0.0, 0.0\n34.0, 0.0, 0.0, 0.0, 0.0, 1.0, 0.0, 0.0, 1.0, 0.0\n0.0, 0.0, 0.0, 16.0, 0.0, 0.0, 0.0, 0.0, 0.0, 1.0\n0.0, 0.0, 0.0, 0.0, 0.0, 0.0, 2.0, 58.0, 0.0, 0.0\n0.0, 8.0, 17.0, 0.0, 0.0, 0.0, 0.0, 0.0, 0.0, 4.0\n0.0, 10.0, 1.0, 0.0, 0.0, 0.0, 0.0, 0.0, 0.0, 61.0\n0.0, 11.0, 0.0, 0.0]\nclass = ricinus communis", fillcolor="#fffbfc"] ;
1 -> 27 ;
28 [label="severity <= 0.5\nentropy = 2.317\nsamples = 141\nvalue = [0, 0, 0, 0, 0, 0, 0, 0, 0, 0, 34, 0, 0, 0\n0, 0, 0, 0, 1, 0, 0, 0, 0, 16, 0, 0, 0, 0\n0, 1, 0, 0, 0, 0, 0, 0, 2, 0, 0, 0, 0, 0\n0, 0, 0, 0, 0, 0, 0, 4, 0, 10, 1, 0, 0, 0\n0, 0, 0, 61, 0, 11, 0, 0]\nclass = ricinus communis", fillcolor="#f8cdd0"] ;
27 -> 28 ;
29 [label="age <= 20.5\nentropy = 0.806\nsamples = 74\nvalue = [0, 0, 0, 0, 0, 0, 0, 0, 0, 0, 0, 0, 0, 0\n0, 0, 0, 0, 1, 0, 0, 0, 0, 0, 0, 0, 0, 0\n0, 1, 0, 0, 0, 0, 0, 0, 0, 0, 0, 0, 0, 0\n0, 0, 0, 0, 0, 0, 0, 0, 0, 0, 0, 0, 0, 0\n0, 0, 0, 61, 0, 11, 0, 0]\nclass = ricinus communis", fillcolor="#ea626b"] ;
28 -> 29 ;
30 [label="age <= 9.5\nentropy = 0.773\nsamples = 13\nvalue = [0, 0, 0, 0, 0, 0, 0, 0, 0, 0, 0, 0, 0, 0\n0, 0, 0, 0, 1, 0, 0, 0, 0, 0, 0, 0, 0, 0\n0, 1, 0, 0, 0, 0, 0, 0, 0, 0, 0, 0, 0, 0\n0, 0, 0, 0, 0, 0, 0, 0, 0, 0, 0, 0, 0, 0\n0, 0, 0, 0, 0, 11, 0, 0]\nclass = boswellia curcumin", fillcolor="#e96d5a"] ;
29 -> 30 ;
31 [label="age <= 8.5\nentropy = 1.0\nsamples = 2\nvalue = [0, 0, 0, 0, 0, 0, 0, 0, 0, 0, 0, 0, 0, 0\n0, 0, 0, 0, 1, 0, 0, 0, 0, 0, 0, 0, 0, 0\n0, 1, 0, 0, 0, 0, 0, 0, 0, 0, 0, 0, 0, 0\n0, 0, 0, 0, 0, 0, 0, 0, 0, 0, 0, 0, 0, 0\n0, 0, 0, 0, 0, 0, 0, 0]\nclass = dashmool oil", fillcolor="#ffffff"] ;
30 -> 31 ;
32 [label="entropy = 0.0\nsamples = 1\nvalue = [0, 0, 0, 0, 0, 0, 0, 0, 0, 0, 0, 0, 0, 0\n0, 0, 0, 0, 0, 0, 0, 0, 0, 0, 0, 0, 0, 0\n0, 1, 0, 0, 0, 0, 0, 0, 0, 0, 0, 0, 0, 0\n0, 0, 0, 0, 0, 0, 0, 0, 0, 0, 0, 0, 0, 0\n0, 0, 0, 0, 0, 0, 0, 0]\nclass = ginger ", fillcolor="#39cee5"] ;
31 -> 32 ;
33 [label="entropy = 0.0\nsamples = 1\nvalue = [0, 0, 0, 0, 0, 0, 0, 0, 0, 0, 0, 0, 0, 0\n0, 0, 0, 0, 1, 0, 0, 0, 0, 0, 0, 0, 0, 0\n0, 0, 0, 0, 0, 0, 0, 0, 0, 0, 0, 0, 0, 0\n0, 0, 0, 0, 0, 0, 0, 0, 0, 0, 0, 0, 0, 0\n0, 0, 0, 0, 0, 0, 0, 0]\nclass = dashmool oil", fillcolor="#39e54a"] ;
31 -> 33 ;
34 [label="entropy = 0.0\nsamples = 11\nvalue = [0, 0, 0, 0, 0, 0, 0, 0, 0, 0, 0, 0, 0, 0\n0, 0, 0, 0, 0, 0, 0, 0, 0, 0, 0, 0, 0, 0\n0, 0, 0, 0, 0, 0, 0, 0, 0, 0, 0, 0, 0, 0\n0, 0, 0, 0, 0, 0, 0, 0, 0, 0, 0, 0, 0, 0\n0, 0, 0, 0, 0, 11, 0, 0]\nclass = boswellia curcumin", fillcolor="#e55039"] ;
30 -> 34 ;
35 [label="entropy = 0.0\nsamples = 61\nvalue = [0, 0, 0, 0, 0, 0, 0, 0, 0, 0, 0, 0, 0, 0\n0, 0, 0, 0, 0, 0, 0, 0, 0, 0, 0, 0, 0, 0\n0, 0, 0, 0, 0, 0, 0, 0, 0, 0, 0, 0, 0, 0\n0, 0, 0, 0, 0, 0, 0, 0, 0, 0, 0, 0, 0, 0\n0, 0, 0, 61, 0, 0, 0, 0]\nclass = ricinus communis", fillcolor="#e53944"] ;
29 -> 35 ;
36 [label="age <= 31.5\nentropy = 1.884\nsamples = 67\nvalue = [0, 0, 0, 0, 0, 0, 0, 0, 0, 0, 34, 0, 0, 0\n0, 0, 0, 0, 0, 0, 0, 0, 0, 16, 0, 0, 0, 0\n0, 0, 0, 0, 0, 0, 0, 0, 2, 0, 0, 0, 0, 0\n0, 0, 0, 0, 0, 0, 0, 4, 0, 10, 1, 0, 0, 0\n0, 0, 0, 0, 0, 0, 0, 0]\nclass = shankhapushpi", fillcolor="#e1f6b9"] ;
28 -> 36 ;
37 [label="age <= 21.5\nentropy = 1.795\nsamples = 33\nvalue = [0, 0, 0, 0, 0, 0, 0, 0, 0, 0, 0, 0, 0, 0\n0, 0, 0, 0, 0, 0, 0, 0, 0, 16, 0, 0, 0, 0\n0, 0, 0, 0, 0, 0, 0, 0, 2, 0, 0, 0, 0, 0\n0, 0, 0, 0, 0, 0, 0, 4, 0, 10, 1, 0, 0, 0\n0, 0, 0, 0, 0, 0, 0, 0]\nclass = kutajarishta", fillcolor="#cbf8e5"] ;
36 -> 37 ;
38 [label="age <= 9.5\nentropy = 1.545\nsamples = 17\nvalue = [0, 0, 0, 0, 0, 0, 0, 0, 0, 0, 0, 0, 0, 0\n0, 0, 0, 0, 0, 0, 0, 0, 0, 0, 0, 0, 0, 0\n0, 0, 0, 0, 0, 0, 0, 0, 2, 0, 0, 0, 0, 0\n0, 0, 0, 0, 0, 0, 0, 4, 0, 10, 1, 0, 0, 0\n0, 0, 0, 0, 0, 0, 0, 0]\nclass = Mukta pishti", fillcolor="#f3a4e4"] ;
37 -> 38 ;
39 [label="entropy = 1.379\nsamples = 7\nvalue = [0, 0, 0, 0, 0, 0, 0, 0, 0, 0, 0, 0, 0, 0\n0, 0, 0, 0, 0, 0, 0, 0, 0, 0, 0, 0, 0, 0\n0, 0, 0, 0, 0, 0, 0, 0, 2, 0, 0, 0, 0, 0\n0, 0, 0, 0, 0, 0, 0, 4, 0, 0, 1, 0, 0, 0\n0, 0, 0, 0, 0, 0, 0, 0]\nclass = mukta pishti", fillcolor="#f5b0f5"] ;
38 -> 39 ;
40 [label="entropy = 0.0\nsamples = 10\nvalue = [0, 0, 0, 0, 0, 0, 0, 0, 0, 0, 0, 0, 0, 0\n0, 0, 0, 0, 0, 0, 0, 0, 0, 0, 0, 0, 0, 0\n0, 0, 0, 0, 0, 0, 0, 0, 0, 0, 0, 0, 0, 0\n0, 0, 0, 0, 0, 0, 0, 0, 0, 10, 0, 0, 0, 0\n0, 0, 0, 0, 0, 0, 0, 0]\nclass = Mukta pishti", fillcolor="#e539c5"] ;
38 -> 40 ;
41 [label="entropy = 0.0\nsamples = 16\nvalue = [0, 0, 0, 0, 0, 0, 0, 0, 0, 0, 0, 0, 0, 0\n0, 0, 0, 0, 0, 0, 0, 0, 0, 16, 0, 0, 0, 0\n0, 0, 0, 0, 0, 0, 0, 0, 0, 0, 0, 0, 0, 0\n0, 0, 0, 0, 0, 0, 0, 0, 0, 0, 0, 0, 0, 0\n0, 0, 0, 0, 0, 0, 0, 0]\nclass = kutajarishta", fillcolor="#39e59a"] ;
37 -> 41 ;
42 [label="entropy = 0.0\nsamples = 34\nvalue = [0, 0, 0, 0, 0, 0, 0, 0, 0, 0, 34, 0, 0, 0\n0, 0, 0, 0, 0, 0, 0, 0, 0, 0, 0, 0, 0, 0\n0, 0, 0, 0, 0, 0, 0, 0, 0, 0, 0, 0, 0, 0\n0, 0, 0, 0, 0, 0, 0, 0, 0, 0, 0, 0, 0, 0\n0, 0, 0, 0, 0, 0, 0, 0]\nclass = shankhapushpi", fillcolor="#a9e539"] ;
36 -> 42 ;
43 [label="age <= 21.0\nentropy = 1.235\nsamples = 84\nvalue = [0, 0, 0, 0, 0, 0, 0, 0, 0, 0, 0, 0, 0, 0\n0, 1, 0, 0, 0, 0, 0, 0, 0, 0, 0, 0, 0, 0\n0, 0, 0, 0, 0, 0, 0, 0, 0, 58, 0, 0, 0, 8\n17, 0, 0, 0, 0, 0, 0, 0, 0, 0, 0, 0, 0, 0\n0, 0, 0, 0, 0, 0, 0, 0]\nclass = hingvastak churna", fillcolor="#8692ef"] ;
27 -> 43 ;
44 [label="age <= 9.5\nentropy = 1.292\nsamples = 27\nvalue = [0, 0, 0, 0, 0, 0, 0, 0, 0, 0, 0, 0, 0, 0\n0, 1, 0, 0, 0, 0, 0, 0, 0, 0, 0, 0, 0, 0\n0, 0, 0, 0, 0, 0, 0, 0, 0, 1, 0, 0, 0, 8\n17, 0, 0, 0, 0, 0, 0, 0, 0, 0, 0, 0, 0, 0\n0, 0, 0, 0, 0, 0, 0, 0]\nclass = jahar mohra pishti", fillcolor="#bea1f3"] ;
43 -> 44 ;
45 [label="age <= 7.5\nentropy = 0.922\nsamples = 10\nvalue = [0, 0, 0, 0, 0, 0, 0, 0, 0, 0, 0, 0, 0, 0\n0, 1, 0, 0, 0, 0, 0, 0, 0, 0, 0, 0, 0, 0\n0, 0, 0, 0, 0, 0, 0, 0, 0, 1, 0, 0, 0, 8\n0, 0, 0, 0, 0, 0, 0, 0, 0, 0, 0, 0, 0, 0\n0, 0, 0, 0, 0, 0, 0, 0]\nclass = akik pishti", fillcolor="#8665eb"] ;
44 -> 45 ;
46 [label="entropy = 0.0\nsamples = 8\nvalue = [0, 0, 0, 0, 0, 0, 0, 0, 0, 0, 0, 0, 0, 0\n0, 0, 0, 0, 0, 0, 0, 0, 0, 0, 0, 0, 0, 0\n0, 0, 0, 0, 0, 0, 0, 0, 0, 0, 0, 0, 0, 8\n0, 0, 0, 0, 0, 0, 0, 0, 0, 0, 0, 0, 0, 0\n0, 0, 0, 0, 0, 0, 0, 0]\nclass = akik pishti", fillcolor="#6439e5"] ;
45 -> 46 ;
47 [label="age <= 8.5\nentropy = 1.0\nsamples = 2\nvalue = [0, 0, 0, 0, 0, 0, 0, 0, 0, 0, 0, 0, 0, 0\n0, 1, 0, 0, 0, 0, 0, 0, 0, 0, 0, 0, 0, 0\n0, 0, 0, 0, 0, 0, 0, 0, 0, 1, 0, 0, 0, 0\n0, 0, 0, 0, 0, 0, 0, 0, 0, 0, 0, 0, 0, 0\n0, 0, 0, 0, 0, 0, 0, 0]\nclass = lavanaabhaskara churna", fillcolor="#ffffff"] ;
45 -> 47 ;
48 [label="entropy = 0.0\nsamples = 1\nvalue = [0, 0, 0, 0, 0, 0, 0, 0, 0, 0, 0, 0, 0, 0\n0, 1, 0, 0, 0, 0, 0, 0, 0, 0, 0, 0, 0, 0\n0, 0, 0, 0, 0, 0, 0, 0, 0, 0, 0, 0, 0, 0\n0, 0, 0, 0, 0, 0, 0, 0, 0, 0, 0, 0, 0, 0\n0, 0, 0, 0, 0, 0, 0, 0]\nclass = lavanaabhaskara churna", fillcolor="#58e539"] ;
47 -> 48 ;
49 [label="entropy = 0.0\nsamples = 1\nvalue = [0, 0, 0, 0, 0, 0, 0, 0, 0, 0, 0, 0, 0, 0\n0, 0, 0, 0, 0, 0, 0, 0, 0, 0, 0, 0, 0, 0\n0, 0, 0, 0, 0, 0, 0, 0, 0, 1, 0, 0, 0, 0\n0, 0, 0, 0, 0, 0, 0, 0, 0, 0, 0, 0, 0, 0\n0, 0, 0, 0, 0, 0, 0, 0]\nclass = hingvastak churna", fillcolor="#394de5"] ;
47 -> 49 ;
50 [label="entropy = 0.0\nsamples = 17\nvalue = [0, 0, 0, 0, 0, 0, 0, 0, 0, 0, 0, 0, 0, 0\n0, 0, 0, 0, 0, 0, 0, 0, 0, 0, 0, 0, 0, 0\n0, 0, 0, 0, 0, 0, 0, 0, 0, 0, 0, 0, 0, 0\n17, 0, 0, 0, 0, 0, 0, 0, 0, 0, 0, 0, 0, 0\n0, 0, 0, 0, 0, 0, 0, 0]\nclass = jahar mohra pishti", fillcolor="#7539e5"] ;
44 -> 50 ;
51 [label="entropy = 0.0\nsamples = 57\nvalue = [0, 0, 0, 0, 0, 0, 0, 0, 0, 0, 0, 0, 0, 0\n0, 0, 0, 0, 0, 0, 0, 0, 0, 0, 0, 0, 0, 0\n0, 0, 0, 0, 0, 0, 0, 0, 0, 57, 0, 0, 0, 0\n0, 0, 0, 0, 0, 0, 0, 0, 0, 0, 0, 0, 0, 0\n0, 0, 0, 0, 0, 0, 0, 0]\nclass = hingvastak churna", fillcolor="#394de5"] ;
43 -> 51 ;
52 [label="disease <= 2.5\nentropy = 4.17\nsamples = 459\nvalue = [24.0, 31.0, 24.0, 11.0, 11.0, 33.0, 33.0, 30.0, 11.0\n0.0, 2.0, 0.0, 0.0, 58.0, 2.0, 0.0, 0.0, 1.0, 0.0\n0.0, 0.0, 1.0, 2.0, 0.0, 1.0, 0.0, 2.0, 0.0, 12.0\n0.0, 2.0, 5.0, 2.0, 6.0, 0.0, 0.0, 0.0, 0.0, 6.0\n1.0, 2.0, 0.0, 0.0, 0.0, 0.0, 0.0, 57.0, 33.0, 0.0\n0.0, 0.0, 0.0, 0.0, 2.0, 2.0, 1.0, 2.0, 8.0, 0.0\n0.0, 0.0, 0.0, 2.0, 39.0]\nclass = kutaja", fillcolor="#ffffff"] ;
0 -> 52 [labeldistance=2.5, labelangle=-45, headlabel="False"] ;
53 [label="age <= 20.5\nentropy = 2.975\nsamples = 237\nvalue = [0.0, 0.0, 0.0, 0.0, 0.0, 0.0, 0.0, 0.0, 0.0, 0.0\n2.0, 0.0, 0.0, 58.0, 0.0, 0.0, 0.0, 1.0, 0.0, 0.0\n0.0, 0.0, 0.0, 0.0, 1.0, 0.0, 0.0, 0.0, 12.0, 0.0\n2.0, 5.0, 2.0, 6.0, 0.0, 0.0, 0.0, 0.0, 6.0, 1.0\n2.0, 0.0, 0.0, 0.0, 0.0, 0.0, 57.0, 33.0, 0.0, 0.0\n0.0, 0.0, 0.0, 2.0, 0.0, 0.0, 0.0, 8.0, 0.0, 0.0\n0.0, 0.0, 0.0, 39.0]\nclass = kutaja", fillcolor="#fefffe"] ;
52 -> 53 ;
54 [label="severity <= 1.5\nentropy = 3.389\nsamples = 57\nvalue = [0, 0, 0, 0, 0, 0, 0, 0, 0, 0, 2, 0, 0, 0\n0, 0, 0, 1, 0, 0, 0, 0, 0, 0, 1, 0, 0, 0\n12, 0, 2, 5, 2, 6, 0, 0, 0, 0, 6, 1, 2, 0\n0, 0, 0, 0, 0, 0, 0, 0, 0, 0, 0, 2, 0, 0\n0, 8, 0, 0, 0, 0, 0, 7]\nclass = shud laksha", fillcolor="#effcfd"] ;
53 -> 54 ;
55 [label="severity <= 0.5\nentropy = 3.064\nsamples = 35\nvalue = [0, 0, 0, 0, 0, 0, 0, 0, 0, 0, 2, 0, 0, 0\n0, 0, 0, 0, 0, 0, 0, 0, 0, 0, 1, 0, 0, 0\n0, 0, 2, 5, 2, 6, 0, 0, 0, 0, 6, 0, 2, 0\n0, 0, 0, 0, 0, 0, 0, 0, 0, 0, 0, 2, 0, 0\n0, 0, 0, 0, 0, 0, 0, 7]\nclass = Anu Taila + Shankhapushpi", fillcolor="#fefaf8"] ;
54 -> 55 ;
56 [label="age <= 14.5\nentropy = 2.055\nsamples = 16\nvalue = [0, 0, 0, 0, 0, 0, 0, 0, 0, 0, 0, 0, 0, 0\n0, 0, 0, 0, 0, 0, 0, 0, 0, 0, 1, 0, 0, 0\n0, 0, 0, 5, 2, 6, 0, 0, 0, 0, 0, 0, 0, 0\n0, 0, 0, 0, 0, 0, 0, 0, 0, 0, 0, 2, 0, 0\n0, 0, 0, 0, 0, 0, 0, 0]\nclass = pathyadi guggulu", fillcolor="#edf5fd"] ;
55 -> 56 ;
57 [label="age <= 10.5\nentropy = 1.761\nsamples = 10\nvalue = [0, 0, 0, 0, 0, 0, 0, 0, 0, 0, 0, 0, 0, 0\n0, 0, 0, 0, 0, 0, 0, 0, 0, 0, 1, 0, 0, 0\n0, 0, 0, 5, 2, 0, 0, 0, 0, 0, 0, 0, 0, 0\n0, 0, 0, 0, 0, 0, 0, 0, 0, 0, 0, 2, 0, 0\n0, 0, 0, 0, 0, 0, 0, 0]\nclass = shankh-vati", fillcolor="#b5e1f5"] ;
56 -> 57 ;
58 [label="entropy = 1.522\nsamples = 5\nvalue = [0, 0, 0, 0, 0, 0, 0, 0, 0, 0, 0, 0, 0, 0\n0, 0, 0, 0, 0, 0, 0, 0, 0, 0, 1, 0, 0, 0\n0, 0, 0, 0, 2, 0, 0, 0, 0, 0, 0, 0, 0, 0\n0, 0, 0, 0, 0, 0, 0, 0, 0, 0, 0, 2, 0, 0\n0, 0, 0, 0, 0, 0, 0, 0]\nclass = drakshasava", fillcolor="#ffffff"] ;
57 -> 58 ;
59 [label="entropy = 0.0\nsamples = 5\nvalue = [0, 0, 0, 0, 0, 0, 0, 0, 0, 0, 0, 0, 0, 0\n0, 0, 0, 0, 0, 0, 0, 0, 0, 0, 0, 0, 0, 0\n0, 0, 0, 5, 0, 0, 0, 0, 0, 0, 0, 0, 0, 0\n0, 0, 0, 0, 0, 0, 0, 0, 0, 0, 0, 0, 0, 0\n0, 0, 0, 0, 0, 0, 0, 0]\nclass = shankh-vati", fillcolor="#39aee5"] ;
57 -> 59 ;
60 [label="entropy = 0.0\nsamples = 6\nvalue = [0, 0, 0, 0, 0, 0, 0, 0, 0, 0, 0, 0, 0, 0\n0, 0, 0, 0, 0, 0, 0, 0, 0, 0, 0, 0, 0, 0\n0, 0, 0, 0, 0, 6, 0, 0, 0, 0, 0, 0, 0, 0\n0, 0, 0, 0, 0, 0, 0, 0, 0, 0, 0, 0, 0, 0\n0, 0, 0, 0, 0, 0, 0, 0]\nclass = pathyadi guggulu", fillcolor="#398fe5"] ;
56 -> 60 ;
61 [label="age <= 15.0\nentropy = 2.082\nsamples = 19\nvalue = [0, 0, 0, 0, 0, 0, 0, 0, 0, 0, 2, 0, 0, 0\n0, 0, 0, 0, 0, 0, 0, 0, 0, 0, 0, 0, 0, 0\n0, 0, 2, 0, 0, 0, 0, 0, 0, 0, 6, 0, 2, 0\n0, 0, 0, 0, 0, 0, 0, 0, 0, 0, 0, 0, 0, 0\n0, 0, 0, 0, 0, 0, 0, 7]\nclass = Anu Taila + Shankhapushpi", fillcolor="#fdf4f0"] ;
55 -> 61 ;
62 [label="age <= 10.5\nentropy = 1.792\nsamples = 12\nvalue = [0, 0, 0, 0, 0, 0, 0, 0, 0, 0, 2, 0, 0, 0\n0, 0, 0, 0, 0, 0, 0, 0, 0, 0, 0, 0, 0, 0\n0, 0, 2, 0, 0, 0, 0, 0, 0, 0, 6, 0, 2, 0\n0, 0, 0, 0, 0, 0, 0, 0, 0, 0, 0, 0, 0, 0\n0, 0, 0, 0, 0, 0, 0, 0]\nclass = shivakshar pachan churna", fillcolor="#b0b2f5"] ;
61 -> 62 ;
63 [label="entropy = 1.585\nsamples = 6\nvalue = [0, 0, 0, 0, 0, 0, 0, 0, 0, 0, 2, 0, 0, 0\n0, 0, 0, 0, 0, 0, 0, 0, 0, 0, 0, 0, 0, 0\n0, 0, 2, 0, 0, 0, 0, 0, 0, 0, 0, 0, 2, 0\n0, 0, 0, 0, 0, 0, 0, 0, 0, 0, 0, 0, 0, 0\n0, 0, 0, 0, 0, 0, 0, 0]\nclass = shankhapushpi", fillcolor="#ffffff"] ;
62 -> 63 ;
64 [label="entropy = 0.0\nsamples = 6\nvalue = [0, 0, 0, 0, 0, 0, 0, 0, 0, 0, 0, 0, 0, 0\n0, 0, 0, 0, 0, 0, 0, 0, 0, 0, 0, 0, 0, 0\n0, 0, 0, 0, 0, 0, 0, 0, 0, 0, 6, 0, 0, 0\n0, 0, 0, 0, 0, 0, 0, 0, 0, 0, 0, 0, 0, 0\n0, 0, 0, 0, 0, 0, 0, 0]\nclass = shivakshar pachan churna", fillcolor="#393fe5"] ;
62 -> 64 ;
65 [label="entropy = 0.0\nsamples = 7\nvalue = [0, 0, 0, 0, 0, 0, 0, 0, 0, 0, 0, 0, 0, 0\n0, 0, 0, 0, 0, 0, 0, 0, 0, 0, 0, 0, 0, 0\n0, 0, 0, 0, 0, 0, 0, 0, 0, 0, 0, 0, 0, 0\n0, 0, 0, 0, 0, 0, 0, 0, 0, 0, 0, 0, 0, 0\n0, 0, 0, 0, 0, 0, 0, 7]\nclass = Anu Taila + Shankhapushpi", fillcolor="#e56f39"] ;
61 -> 65 ;
66 [label="age <= 14.5\nentropy = 1.413\nsamples = 22\nvalue = [0, 0, 0, 0, 0, 0, 0, 0, 0, 0, 0, 0, 0, 0\n0, 0, 0, 1, 0, 0, 0, 0, 0, 0, 0, 0, 0, 0\n12, 0, 0, 0, 0, 0, 0, 0, 0, 0, 0, 1, 0, 0\n0, 0, 0, 0, 0, 0, 0, 0, 0, 0, 0, 0, 0, 0\n0, 8, 0, 0, 0, 0, 0, 0]\nclass = shud laksha", fillcolor="#c6f6f8"] ;
54 -> 66 ;
67 [label="age <= 10.5\nentropy = 1.418\nsamples = 12\nvalue = [0, 0, 0, 0, 0, 0, 0, 0, 0, 0, 0, 0, 0, 0\n0, 0, 0, 1, 0, 0, 0, 0, 0, 0, 0, 0, 0, 0\n2, 0, 0, 0, 0, 0, 0, 0, 0, 0, 0, 1, 0, 0\n0, 0, 0, 0, 0, 0, 0, 0, 0, 0, 0, 0, 0, 0\n0, 8, 0, 0, 0, 0, 0, 0]\nclass = sitopaladi churna", fillcolor="#ef88a2"] ;
66 -> 67 ;
68 [label="age <= 8.5\nentropy = 1.5\nsamples = 4\nvalue = [0, 0, 0, 0, 0, 0, 0, 0, 0, 0, 0, 0, 0, 0\n0, 0, 0, 1, 0, 0, 0, 0, 0, 0, 0, 0, 0, 0\n2, 0, 0, 0, 0, 0, 0, 0, 0, 0, 0, 1, 0, 0\n0, 0, 0, 0, 0, 0, 0, 0, 0, 0, 0, 0, 0, 0\n0, 0, 0, 0, 0, 0, 0, 0]\nclass = shud laksha", fillcolor="#bdf4f6"] ;
67 -> 68 ;
69 [label="entropy = 0.0\nsamples = 2\nvalue = [0, 0, 0, 0, 0, 0, 0, 0, 0, 0, 0, 0, 0, 0\n0, 0, 0, 0, 0, 0, 0, 0, 0, 0, 0, 0, 0, 0\n2, 0, 0, 0, 0, 0, 0, 0, 0, 0, 0, 0, 0, 0\n0, 0, 0, 0, 0, 0, 0, 0, 0, 0, 0, 0, 0, 0\n0, 0, 0, 0, 0, 0, 0, 0]\nclass = shud laksha", fillcolor="#39dfe5"] ;
68 -> 69 ;
70 [label="entropy = 1.0\nsamples = 2\nvalue = [0, 0, 0, 0, 0, 0, 0, 0, 0, 0, 0, 0, 0, 0\n0, 0, 0, 1, 0, 0, 0, 0, 0, 0, 0, 0, 0, 0\n0, 0, 0, 0, 0, 0, 0, 0, 0, 0, 0, 1, 0, 0\n0, 0, 0, 0, 0, 0, 0, 0, 0, 0, 0, 0, 0, 0\n0, 0, 0, 0, 0, 0, 0, 0]\nclass = dashmool powder with water", fillcolor="#ffffff"] ;
68 -> 70 ;
71 [label="entropy = 0.0\nsamples = 8\nvalue = [0, 0, 0, 0, 0, 0, 0, 0, 0, 0, 0, 0, 0, 0\n0, 0, 0, 0, 0, 0, 0, 0, 0, 0, 0, 0, 0, 0\n0, 0, 0, 0, 0, 0, 0, 0, 0, 0, 0, 0, 0, 0\n0, 0, 0, 0, 0, 0, 0, 0, 0, 0, 0, 0, 0, 0\n0, 8, 0, 0, 0, 0, 0, 0]\nclass = sitopaladi churna", fillcolor="#e53964"] ;
67 -> 71 ;
72 [label="entropy = 0.0\nsamples = 10\nvalue = [0, 0, 0, 0, 0, 0, 0, 0, 0, 0, 0, 0, 0, 0\n0, 0, 0, 0, 0, 0, 0, 0, 0, 0, 0, 0, 0, 0\n10, 0, 0, 0, 0, 0, 0, 0, 0, 0, 0, 0, 0, 0\n0, 0, 0, 0, 0, 0, 0, 0, 0, 0, 0, 0, 0, 0\n0, 0, 0, 0, 0, 0, 0, 0]\nclass = shud laksha", fillcolor="#39dfe5"] ;
66 -> 72 ;
73 [label="severity <= 0.5\nentropy = 1.944\nsamples = 180\nvalue = [0.0, 0.0, 0.0, 0.0, 0.0, 0.0, 0.0, 0.0, 0.0, 0.0\n0.0, 0.0, 0.0, 58.0, 0.0, 0.0, 0.0, 0.0, 0.0, 0.0\n0.0, 0.0, 0.0, 0.0, 0.0, 0.0, 0.0, 0.0, 0.0, 0.0\n0.0, 0.0, 0.0, 0.0, 0.0, 0.0, 0.0, 0.0, 0.0, 0.0\n0.0, 0.0, 0.0, 0.0, 0.0, 0.0, 57.0, 33.0, 0.0, 0.0\n0.0, 0.0, 0.0, 0.0, 0.0, 0.0, 0.0, 0.0, 0.0, 0.0\n0.0, 0.0, 0.0, 32.0]\nclass = kutaja", fillcolor="#fefffd"] ;
53 -> 73 ;
74 [label="age <= 40.5\nentropy = 1.0\nsamples = 65\nvalue = [0, 0, 0, 0, 0, 0, 0, 0, 0, 0, 0, 0, 0, 0\n0, 0, 0, 0, 0, 0, 0, 0, 0, 0, 0, 0, 0, 0\n0, 0, 0, 0, 0, 0, 0, 0, 0, 0, 0, 0, 0, 0\n0, 0, 0, 0, 33, 0, 0, 0, 0, 0, 0, 0, 0, 0\n0, 0, 0, 0, 0, 0, 0, 32]\nclass = indukantham kashayam", fillcolor="#fdf9fe"] ;
73 -> 74 ;
75 [label="entropy = 0.0\nsamples = 33\nvalue = [0, 0, 0, 0, 0, 0, 0, 0, 0, 0, 0, 0, 0, 0\n0, 0, 0, 0, 0, 0, 0, 0, 0, 0, 0, 0, 0, 0\n0, 0, 0, 0, 0, 0, 0, 0, 0, 0, 0, 0, 0, 0\n0, 0, 0, 0, 33, 0, 0, 0, 0, 0, 0, 0, 0, 0\n0, 0, 0, 0, 0, 0, 0, 0]\nclass = indukantham kashayam", fillcolor="#b439e5"] ;
74 -> 75 ;
76 [label="entropy = 0.0\nsamples = 32\nvalue = [0, 0, 0, 0, 0, 0, 0, 0, 0, 0, 0, 0, 0, 0\n0, 0, 0, 0, 0, 0, 0, 0, 0, 0, 0, 0, 0, 0\n0, 0, 0, 0, 0, 0, 0, 0, 0, 0, 0, 0, 0, 0\n0, 0, 0, 0, 0, 0, 0, 0, 0, 0, 0, 0, 0, 0\n0, 0, 0, 0, 0, 0, 0, 32]\nclass = Anu Taila + Shankhapushpi", fillcolor="#e56f39"] ;
74 -> 76 ;
77 [label="age <= 40.5\nentropy = 1.487\nsamples = 115\nvalue = [0, 0, 0, 0, 0, 0, 0, 0, 0, 0, 0, 0, 0, 58\n0, 0, 0, 0, 0, 0, 0, 0, 0, 0, 0, 0, 0, 0\n0, 0, 0, 0, 0, 0, 0, 0, 0, 0, 0, 0, 0, 0\n0, 0, 0, 0, 24, 33, 0, 0, 0, 0, 0, 0, 0, 0\n0, 0, 0, 0, 0, 0, 0, 0]\nclass = kutaja", fillcolor="#d6f7c3"] ;
73 -> 77 ;
78 [label="severity <= 1.5\nentropy = 0.986\nsamples = 58\nvalue = [0, 0, 0, 0, 0, 0, 0, 0, 0, 0, 0, 0, 0, 25\n0, 0, 0, 0, 0, 0, 0, 0, 0, 0, 0, 0, 0, 0\n0, 0, 0, 0, 0, 0, 0, 0, 0, 0, 0, 0, 0, 0\n0, 0, 0, 0, 0, 33, 0, 0, 0, 0, 0, 0, 0, 0\n0, 0, 0, 0, 0, 0, 0, 0]\nclass = trikatu churna", fillcolor="#f1cff9"] ;
77 -> 78 ;
79 [label="entropy = 0.0\nsamples = 33\nvalue = [0, 0, 0, 0, 0, 0, 0, 0, 0, 0, 0, 0, 0, 0\n0, 0, 0, 0, 0, 0, 0, 0, 0, 0, 0, 0, 0, 0\n0, 0, 0, 0, 0, 0, 0, 0, 0, 0, 0, 0, 0, 0\n0, 0, 0, 0, 0, 33, 0, 0, 0, 0, 0, 0, 0, 0\n0, 0, 0, 0, 0, 0, 0, 0]\nclass = trikatu churna", fillcolor="#c539e5"] ;
78 -> 79 ;
80 [label="entropy = 0.0\nsamples = 25\nvalue = [0, 0, 0, 0, 0, 0, 0, 0, 0, 0, 0, 0, 0, 25\n0, 0, 0, 0, 0, 0, 0, 0, 0, 0, 0, 0, 0, 0\n0, 0, 0, 0, 0, 0, 0, 0, 0, 0, 0, 0, 0, 0\n0, 0, 0, 0, 0, 0, 0, 0, 0, 0, 0, 0, 0, 0\n0, 0, 0, 0, 0, 0, 0, 0]\nclass = kutaja", fillcolor="#78e539"] ;
78 -> 80 ;
81 [label="severity <= 1.5\nentropy = 0.982\nsamples = 57\nvalue = [0, 0, 0, 0, 0, 0, 0, 0, 0, 0, 0, 0, 0, 33\n0, 0, 0, 0, 0, 0, 0, 0, 0, 0, 0, 0, 0, 0\n0, 0, 0, 0, 0, 0, 0, 0, 0, 0, 0, 0, 0, 0\n0, 0, 0, 0, 24, 0, 0, 0, 0, 0, 0, 0, 0, 0\n0, 0, 0, 0, 0, 0, 0, 0]\nclass = kutaja", fillcolor="#daf8c9"] ;
77 -> 81 ;
82 [label="entropy = 0.0\nsamples = 33\nvalue = [0, 0, 0, 0, 0, 0, 0, 0, 0, 0, 0, 0, 0, 33\n0, 0, 0, 0, 0, 0, 0, 0, 0, 0, 0, 0, 0, 0\n0, 0, 0, 0, 0, 0, 0, 0, 0, 0, 0, 0, 0, 0\n0, 0, 0, 0, 0, 0, 0, 0, 0, 0, 0, 0, 0, 0\n0, 0, 0, 0, 0, 0, 0, 0]\nclass = kutaja", fillcolor="#78e539"] ;
81 -> 82 ;
83 [label="entropy = 0.0\nsamples = 24\nvalue = [0, 0, 0, 0, 0, 0, 0, 0, 0, 0, 0, 0, 0, 0\n0, 0, 0, 0, 0, 0, 0, 0, 0, 0, 0, 0, 0, 0\n0, 0, 0, 0, 0, 0, 0, 0, 0, 0, 0, 0, 0, 0\n0, 0, 0, 0, 24, 0, 0, 0, 0, 0, 0, 0, 0, 0\n0, 0, 0, 0, 0, 0, 0, 0]\nclass = indukantham kashayam", fillcolor="#b439e5"] ;
81 -> 83 ;
84 [label="age <= 40.5\nentropy = 3.38\nsamples = 222\nvalue = [24.0, 31.0, 24.0, 11.0, 11.0, 33.0, 33.0, 30.0, 11.0\n0.0, 0.0, 0.0, 0.0, 0.0, 2.0, 0.0, 0.0, 0.0, 0.0\n0.0, 0.0, 1.0, 2.0, 0.0, 0.0, 0.0, 2.0, 0.0, 0.0\n0.0, 0.0, 0.0, 0.0, 0.0, 0.0, 0.0, 0.0, 0.0, 0.0\n0.0, 0.0, 0.0, 0.0, 0.0, 0.0, 0.0, 0.0, 0.0, 0.0\n0.0, 0.0, 0.0, 0.0, 0.0, 2.0, 1.0, 2.0, 0.0, 0.0\n0.0, 0.0, 0.0, 2.0, 0.0]\nclass = nirugandi oil", fillcolor="#ffffff"] ;
52 -> 84 ;
85 [label="severity <= 1.5\nentropy = 2.931\nsamples = 141\nvalue = [0, 31, 0, 11, 11, 33, 0, 30, 11, 0, 0, 0, 0\n0, 2, 0, 0, 0, 0, 0, 0, 1, 2, 0, 0, 0, 2\n0, 0, 0, 0, 0, 0, 0, 0, 0, 0, 0, 0, 0, 0\n0, 0, 0, 0, 0, 0, 0, 0, 0, 0, 0, 0, 0, 2\n1, 2, 0, 0, 0, 0, 0, 2, 0]\nclass = nirugandi oil", fillcolor="#fffefb"] ;
84 -> 85 ;
86 [label="severity <= 0.5\nentropy = 2.323\nsamples = 94\nvalue = [0, 0, 0, 0, 11, 33, 0, 30, 11, 0, 0, 0, 0, 0\n2, 0, 0, 0, 0, 0, 0, 0, 0, 0, 0, 0, 2, 0\n0, 0, 0, 0, 0, 0, 0, 0, 0, 0, 0, 0, 0, 0\n0, 0, 0, 0, 0, 0, 0, 0, 0, 0, 0, 0, 2, 1\n2, 0, 0, 0, 0, 0, 0, 0]\nclass = nirugandi oil", fillcolor="#fefdf6"] ;
85 -> 86 ;
87 [label="age <= 18.5\nentropy = 1.286\nsamples = 45\nvalue = [0, 0, 0, 0, 0, 0, 0, 30, 11, 0, 0, 0, 0, 0\n0, 0, 0, 0, 0, 0, 0, 0, 0, 0, 0, 0, 0, 0\n0, 0, 0, 0, 0, 0, 0, 0, 0, 0, 0, 0, 0, 0\n0, 0, 0, 0, 0, 0, 0, 0, 0, 0, 0, 0, 2, 0\n2, 0, 0, 0, 0, 0, 0, 0]\nclass = ajwan water", fillcolor="#eaf090"] ;
86 -> 87 ;
88 [label="age <= 10.0\nentropy = 1.103\nsamples = 15\nvalue = [0, 0, 0, 0, 0, 0, 0, 0, 11, 0, 0, 0, 0, 0\n0, 0, 0, 0, 0, 0, 0, 0, 0, 0, 0, 0, 0, 0\n0, 0, 0, 0, 0, 0, 0, 0, 0, 0, 0, 0, 0, 0\n0, 0, 0, 0, 0, 0, 0, 0, 0, 0, 0, 0, 2, 0\n2, 0, 0, 0, 0, 0, 0, 0]\nclass = ginger", fillcolor="#d9ed76"] ;
87 -> 88 ;
89 [label="entropy = 1.0\nsamples = 4\nvalue = [0, 0, 0, 0, 0, 0, 0, 0, 0, 0, 0, 0, 0, 0\n0, 0, 0, 0, 0, 0, 0, 0, 0, 0, 0, 0, 0, 0\n0, 0, 0, 0, 0, 0, 0, 0, 0, 0, 0, 0, 0, 0\n0, 0, 0, 0, 0, 0, 0, 0, 0, 0, 0, 0, 2, 0\n2, 0, 0, 0, 0, 0, 0, 0]\nclass = panchkol churna", fillcolor="#ffffff"] ;
88 -> 89 ;
90 [label="entropy = 0.0\nsamples = 11\nvalue = [0, 0, 0, 0, 0, 0, 0, 0, 11, 0, 0, 0, 0, 0\n0, 0, 0, 0, 0, 0, 0, 0, 0, 0, 0, 0, 0, 0\n0, 0, 0, 0, 0, 0, 0, 0, 0, 0, 0, 0, 0, 0\n0, 0, 0, 0, 0, 0, 0, 0, 0, 0, 0, 0, 0, 0\n0, 0, 0, 0, 0, 0, 0, 0]\nclass = ginger", fillcolor="#c8e539"] ;
88 -> 90 ;
91 [label="entropy = 0.0\nsamples = 30\nvalue = [0, 0, 0, 0, 0, 0, 0, 30, 0, 0, 0, 0, 0, 0\n0, 0, 0, 0, 0, 0, 0, 0, 0, 0, 0, 0, 0, 0\n0, 0, 0, 0, 0, 0, 0, 0, 0, 0, 0, 0, 0, 0\n0, 0, 0, 0, 0, 0, 0, 0, 0, 0, 0, 0, 0, 0\n0, 0, 0, 0, 0, 0, 0, 0]\nclass = ajwan water", fillcolor="#dae539"] ;
87 -> 91 ;
92 [label="age <= 18.5\nentropy = 1.359\nsamples = 49\nvalue = [0.0, 0.0, 0.0, 0.0, 11.0, 33.0, 0.0, 0.0, 0.0, 0.0\n0.0, 0.0, 0.0, 0.0, 2.0, 0.0, 0.0, 0.0, 0.0, 0.0\n0.0, 0.0, 0.0, 0.0, 0.0, 0.0, 2.0, 0.0, 0.0, 0.0\n0.0, 0.0, 0.0, 0.0, 0.0, 0.0, 0.0, 0.0, 0.0, 0.0\n0.0, 0.0, 0.0, 0.0, 0.0, 0.0, 0.0, 0.0, 0.0, 0.0\n0.0, 0.0, 0.0, 0.0, 0.0, 1.0, 0.0, 0.0, 0.0, 0.0\n0.0, 0.0, 0.0, 0.0]\nclass = nirugandi oil", fillcolor="#f0e48c"] ;
86 -> 92 ;
93 [label="age <= 10.5\nentropy = 1.372\nsamples = 16\nvalue = [0, 0, 0, 0, 11, 0, 0, 0, 0, 0, 0, 0, 0, 0\n2, 0, 0, 0, 0, 0, 0, 0, 0, 0, 0, 0, 2, 0\n0, 0, 0, 0, 0, 0, 0, 0, 0, 0, 0, 0, 0, 0\n0, 0, 0, 0, 0, 0, 0, 0, 0, 0, 0, 0, 0, 1\n0, 0, 0, 0, 0, 0, 0, 0]\nclass = laxative", fillcolor="#eed680"] ;
92 -> 93 ;
94 [label="entropy = 1.522\nsamples = 5\nvalue = [0, 0, 0, 0, 0, 0, 0, 0, 0, 0, 0, 0, 0, 0\n2, 0, 0, 0, 0, 0, 0, 0, 0, 0, 0, 0, 2, 0\n0, 0, 0, 0, 0, 0, 0, 0, 0, 0, 0, 0, 0, 0\n0, 0, 0, 0, 0, 0, 0, 0, 0, 0, 0, 0, 0, 1\n0, 0, 0, 0, 0, 0, 0, 0]\nclass = hingwastaka churna", fillcolor="#ffffff"] ;
93 -> 94 ;
95 [label="entropy = 0.0\nsamples = 11\nvalue = [0, 0, 0, 0, 11, 0, 0, 0, 0, 0, 0, 0, 0, 0\n0, 0, 0, 0, 0, 0, 0, 0, 0, 0, 0, 0, 0, 0\n0, 0, 0, 0, 0, 0, 0, 0, 0, 0, 0, 0, 0, 0\n0, 0, 0, 0, 0, 0, 0, 0, 0, 0, 0, 0, 0, 0\n0, 0, 0, 0, 0, 0, 0, 0]\nclass = laxative", fillcolor="#e5c039"] ;
93 -> 95 ;
96 [label="entropy = 0.0\nsamples = 33\nvalue = [0, 0, 0, 0, 0, 33, 0, 0, 0, 0, 0, 0, 0, 0\n0, 0, 0, 0, 0, 0, 0, 0, 0, 0, 0, 0, 0, 0\n0, 0, 0, 0, 0, 0, 0, 0, 0, 0, 0, 0, 0, 0\n0, 0, 0, 0, 0, 0, 0, 0, 0, 0, 0, 0, 0, 0\n0, 0, 0, 0, 0, 0, 0, 0]\nclass = nirugandi oil", fillcolor="#e5d139"] ;
92 -> 96 ;
97 [label="age <= 18.5\nentropy = 1.392\nsamples = 47\nvalue = [0.0, 31.0, 0.0, 11.0, 0.0, 0.0, 0.0, 0.0, 0.0, 0.0\n0.0, 0.0, 0.0, 0.0, 0.0, 0.0, 0.0, 0.0, 0.0, 0.0\n0.0, 1.0, 2.0, 0.0, 0.0, 0.0, 0.0, 0.0, 0.0, 0.0\n0.0, 0.0, 0.0, 0.0, 0.0, 0.0, 0.0, 0.0, 0.0, 0.0\n0.0, 0.0, 0.0, 0.0, 0.0, 0.0, 0.0, 0.0, 0.0, 0.0\n0.0, 0.0, 0.0, 0.0, 0.0, 0.0, 0.0, 0.0, 0.0, 0.0\n0.0, 0.0, 2.0, 0.0]\nclass = lime juice", fillcolor="#f1c191"] ;
85 -> 97 ;
98 [label="age <= 11.0\nentropy = 1.372\nsamples = 16\nvalue = [0, 0, 0, 11, 0, 0, 0, 0, 0, 0, 0, 0, 0, 0\n0, 0, 0, 0, 0, 0, 0, 1, 2, 0, 0, 0, 0, 0\n0, 0, 0, 0, 0, 0, 0, 0, 0, 0, 0, 0, 0, 0\n0, 0, 0, 0, 0, 0, 0, 0, 0, 0, 0, 0, 0, 0\n0, 0, 0, 0, 0, 0, 2, 0]\nclass = gulachyadi kashayam", fillcolor="#eecb80"] ;
97 -> 98 ;
99 [label="age <= 8.5\nentropy = 1.522\nsamples = 5\nvalue = [0, 0, 0, 0, 0, 0, 0, 0, 0, 0, 0, 0, 0, 0\n0, 0, 0, 0, 0, 0, 0, 1, 2, 0, 0, 0, 0, 0\n0, 0, 0, 0, 0, 0, 0, 0, 0, 0, 0, 0, 0, 0\n0, 0, 0, 0, 0, 0, 0, 0, 0, 0, 0, 0, 0, 0\n0, 0, 0, 0, 0, 0, 2, 0]\nclass = dadimashtaka churna", fillcolor="#ffffff"] ;
98 -> 99 ;
100 [label="entropy = 0.0\nsamples = 2\nvalue = [0, 0, 0, 0, 0, 0, 0, 0, 0, 0, 0, 0, 0, 0\n0, 0, 0, 0, 0, 0, 0, 0, 2, 0, 0, 0, 0, 0\n0, 0, 0, 0, 0, 0, 0, 0, 0, 0, 0, 0, 0, 0\n0, 0, 0, 0, 0, 0, 0, 0, 0, 0, 0, 0, 0, 0\n0, 0, 0, 0, 0, 0, 0, 0]\nclass = dadimashtaka churna", fillcolor="#39e589"] ;
99 -> 100 ;
101 [label="entropy = 0.918\nsamples = 3\nvalue = [0, 0, 0, 0, 0, 0, 0, 0, 0, 0, 0, 0, 0, 0\n0, 0, 0, 0, 0, 0, 0, 1, 0, 0, 0, 0, 0, 0\n0, 0, 0, 0, 0, 0, 0, 0, 0, 0, 0, 0, 0, 0\n0, 0, 0, 0, 0, 0, 0, 0, 0, 0, 0, 0, 0, 0\n0, 0, 0, 0, 0, 0, 2, 0]\nclass = Shankh Vati + Shankh Bhasma", fillcolor="#f2ae9c"] ;
99 -> 101 ;
102 [label="entropy = 0.0\nsamples = 11\nvalue = [0, 0, 0, 11, 0, 0, 0, 0, 0, 0, 0, 0, 0, 0\n0, 0, 0, 0, 0, 0, 0, 0, 0, 0, 0, 0, 0, 0\n0, 0, 0, 0, 0, 0, 0, 0, 0, 0, 0, 0, 0, 0\n0, 0, 0, 0, 0, 0, 0, 0, 0, 0, 0, 0, 0, 0\n0, 0, 0, 0, 0, 0, 0, 0]\nclass = gulachyadi kashayam", fillcolor="#e5ae39"] ;
98 -> 102 ;
103 [label="entropy = 0.0\nsamples = 31\nvalue = [0, 31, 0, 0, 0, 0, 0, 0, 0, 0, 0, 0, 0, 0\n0, 0, 0, 0, 0, 0, 0, 0, 0, 0, 0, 0, 0, 0\n0, 0, 0, 0, 0, 0, 0, 0, 0, 0, 0, 0, 0, 0\n0, 0, 0, 0, 0, 0, 0, 0, 0, 0, 0, 0, 0, 0\n0, 0, 0, 0, 0, 0, 0, 0]\nclass = lime juice", fillcolor="#e58f39"] ;
97 -> 103 ;
104 [label="severity <= 0.5\nentropy = 1.568\nsamples = 81\nvalue = [24, 0, 24, 0, 0, 0, 33, 0, 0, 0, 0, 0, 0, 0\n0, 0, 0, 0, 0, 0, 0, 0, 0, 0, 0, 0, 0, 0\n0, 0, 0, 0, 0, 0, 0, 0, 0, 0, 0, 0, 0, 0\n0, 0, 0, 0, 0, 0, 0, 0, 0, 0, 0, 0, 0, 0\n0, 0, 0, 0, 0, 0, 0, 0]\nclass = nirugandi leaves paste", fillcolor="#fbfae0"] ;
84 -> 104 ;
105 [label="entropy = 0.0\nsamples = 24\nvalue = [0, 0, 24, 0, 0, 0, 0, 0, 0, 0, 0, 0, 0, 0\n0, 0, 0, 0, 0, 0, 0, 0, 0, 0, 0, 0, 0, 0\n0, 0, 0, 0, 0, 0, 0, 0, 0, 0, 0, 0, 0, 0\n0, 0, 0, 0, 0, 0, 0, 0, 0, 0, 0, 0, 0, 0\n0, 0, 0, 0, 0, 0, 0, 0]\nclass = gandharvahastadi kashaya", fillcolor="#e5a039"] ;
104 -> 105 ;
106 [label="severity <= 1.5\nentropy = 0.982\nsamples = 57\nvalue = [24, 0, 0, 0, 0, 0, 33, 0, 0, 0, 0, 0, 0, 0\n0, 0, 0, 0, 0, 0, 0, 0, 0, 0, 0, 0, 0, 0\n0, 0, 0, 0, 0, 0, 0, 0, 0, 0, 0, 0, 0, 0\n0, 0, 0, 0, 0, 0, 0, 0, 0, 0, 0, 0, 0, 0\n0, 0, 0, 0, 0, 0, 0, 0]\nclass = nirugandi leaves paste", fillcolor="#f8f6c9"] ;
104 -> 106 ;
107 [label="entropy = 0.0\nsamples = 33\nvalue = [0, 0, 0, 0, 0, 0, 33, 0, 0, 0, 0, 0, 0, 0\n0, 0, 0, 0, 0, 0, 0, 0, 0, 0, 0, 0, 0, 0\n0, 0, 0, 0, 0, 0, 0, 0, 0, 0, 0, 0, 0, 0\n0, 0, 0, 0, 0, 0, 0, 0, 0, 0, 0, 0, 0, 0\n0, 0, 0, 0, 0, 0, 0, 0]\nclass = nirugandi leaves paste", fillcolor="#e5df39"] ;
106 -> 107 ;
108 [label="entropy = 0.0\nsamples = 24\nvalue = [24, 0, 0, 0, 0, 0, 0, 0, 0, 0, 0, 0, 0, 0\n0, 0, 0, 0, 0, 0, 0, 0, 0, 0, 0, 0, 0, 0\n0, 0, 0, 0, 0, 0, 0, 0, 0, 0, 0, 0, 0, 0\n0, 0, 0, 0, 0, 0, 0, 0, 0, 0, 0, 0, 0, 0\n0, 0, 0, 0, 0, 0, 0, 0]\nclass = promegranate drink", fillcolor="#e58139"] ;
106 -> 108 ;
}
